{
    "name": "Spawn Wars FFA",
    "creator" : "[RLM]Gandalf",
    "version" : "1.0",
    "date" : "2015/01/25",
    "description" : "Everyone Spawns with there start metal only with no expansion, you must kill other players to get more metal spots",
    "note" : "Spawn Wars Concept",
    "players": [
        8,
        8
    ],
    "planets": [
        {
            "name": "Reptar",
            "mass": 5000,
            "position_x": 38200,
            "position_y": -100,
            "velocity_x": 0.29948875308036804,
            "velocity_y": 114.4066162109375,
            "required_thrust_to_move": 3,
            "starting_planet": true,
            "planet": {
                "seed": 1353575168,
                "radius": 447,
                "heightRange": 0,
                "waterHeight": 0,
                "temperature": 0,
                "metalDensity": 0,
                "metalClusters": 0,
                "biomeScale": 50,
                "biome": "moon",
                "symmetryType": "terrain and CSG",
                "symmetricalMetal": true,
                "symmetricalStarts": false,
                "numArmies": 2,
                "landingZonesPerArmy": 0,
                "landingZoneSize": 0
            },
            "source": {
                "brushes": [
                    {
                        "spec": "/pa/terrain/jungle/brushes/jungle_temple.json",
                        "weight": [
                            1,
                            1,
                            1,
                            1
                        ],
                        "proj": "BP_Bend",
                        "op": "BO_Add",
                        "transform": [
                            -7.608365058898926,
                            -0.9632555842399597,
                            0.11779581755399704,
                            7.356296539306641,
                            -0.9632555842399597,
                            7.609272480010986,
                            0.007426675409078598,
                            0.4637925624847412,
                            -0.11779581755399704,
                            -0.007426675409078598,
                            -7.669095516204834,
                            -478.9316101074219
                        ],
                        "scale": [
                            7.670002460479736,
                            7.670002460479736,
                            7.670002460479736
                        ],
                        "rotation": 0,
                        "position": [
                            6.8201904296875,
                            0.42999267578125,
                            -443.9356689453125
                        ],
                        "height": 478.9882507324219,
                        "weightHard": false,
                        "weightScale": [
                            1,
                            1,
                            1
                        ],
                        "mirrored": false,
                        "twinId": 9,
                        "flooded": false,
                        "pathable": false,
                        "mergeable": false,
                        "no_features": true,
                        "biomeColor": [
                            0,
                            0,
                            0,
                            1
                        ]
                    },
                    {
                        "spec": "/pa/terrain/jungle/brushes/jungle_temple.json",
                        "weight": [
                            1,
                            1,
                            1,
                            1
                        ],
                        "proj": "BP_Bend",
                        "op": "BO_Add",
                        "transform": [
                            -7.608365058898926,
                            -0.9632555842399597,
                            0.11779581755399704,
                            7.356296539306641,
                            -0.9632555842399597,
                            7.609272480010986,
                            0.007426675409078598,
                            0.4637925922870636,
                            0.11779581755399704,
                            0.007426675409078598,
                            7.669095516204834,
                            478.931640625
                        ],
                        "scale": [
                            7.670002460479736,
                            7.670002460479736,
                            7.670002460479736
                        ],
                        "rotation": 0,
                        "position": [
                            6.8201904296875,
                            0.42999267578125,
                            -443.9356689453125
                        ],
                        "height": 478.9882507324219,
                        "weightHard": false,
                        "weightScale": [
                            1,
                            1,
                            1
                        ],
                        "mirrored": true,
                        "twinId": 9,
                        "flooded": false,
                        "pathable": false,
                        "mergeable": false,
                        "no_features": true,
                        "biomeColor": [
                            0,
                            0,
                            0,
                            1
                        ]
                    }
                ],
                "metal_spots": [
                    [
                        72.11746215820312,
                        227.35845947265625,
                        376.35186767578125
                    ],
                    [
                        72.11746215820312,
                        227.35845947265625,
                        -376.35186767578125
                    ],
                    [
                        207.2105712890625,
                        118.20852661132812,
                        375.69732666015625
                    ],
                    [
                        207.2105712890625,
                        118.20852661132812,
                        -375.69732666015625
                    ],
                    [
                        228.22561645507812,
                        171.27218627929688,
                        342.34808349609375
                    ],
                    [
                        228.22561645507812,
                        171.27218627929688,
                        -342.34808349609375
                    ],
                    [
                        115.36972045898438,
                        257.3392028808594,
                        345.4970703125
                    ],
                    [
                        115.36972045898438,
                        257.3392028808594,
                        -345.4970703125
                    ],
                    [
                        192.68841552734375,
                        237.8929443359375,
                        324.06744384765625
                    ],
                    [
                        192.68841552734375,
                        237.8929443359375,
                        -324.06744384765625
                    ],
                    [
                        242.64608764648438,
                        -186.53262329101562,
                        323.16851806640625
                    ],
                    [
                        242.64608764648438,
                        -186.53262329101562,
                        -323.16851806640625
                    ],
                    [
                        120.8909912109375,
                        -201.54893493652344,
                        378.248046875
                    ],
                    [
                        120.8909912109375,
                        -201.54893493652344,
                        -378.248046875
                    ],
                    [
                        227.81423950195312,
                        -66.11004638671875,
                        375.02984619140625
                    ],
                    [
                        227.81423950195312,
                        -66.11004638671875,
                        -375.02984619140625
                    ],
                    [
                        260.6659851074219,
                        -109.80670166015625,
                        342.09893798828125
                    ],
                    [
                        260.6659851074219,
                        -109.80670166015625,
                        -342.09893798828125
                    ],
                    [
                        180.537841796875,
                        -223.21669006347656,
                        339.80419921875
                    ],
                    [
                        180.537841796875,
                        -223.21669006347656,
                        -339.80419921875
                    ],
                    [
                        -175.53616333007812,
                        -241.69427490234375,
                        334.56170654296875
                    ],
                    [
                        -175.53616333007812,
                        -241.69427490234375,
                        -334.56170654296875
                    ],
                    [
                        -194.26010131835938,
                        -119.25619506835938,
                        384.4849853515625
                    ],
                    [
                        -194.26010131835938,
                        -119.25619506835938,
                        -384.4849853515625
                    ],
                    [
                        -58.457763671875,
                        -226.218994140625,
                        382.4072265625
                    ],
                    [
                        -58.457763671875,
                        -226.218994140625,
                        -382.4072265625
                    ],
                    [
                        -106.94706726074219,
                        -258.4537658691406,
                        350.6905517578125
                    ],
                    [
                        -106.94706726074219,
                        -258.4537658691406,
                        -350.6905517578125
                    ],
                    [
                        -214.95184326171875,
                        -183.39862060546875,
                        348.02374267578125
                    ],
                    [
                        -214.95184326171875,
                        -183.39862060546875,
                        -348.02374267578125
                    ],
                    [
                        -238.06716918945312,
                        179.6793212890625,
                        331.56109619140625
                    ],
                    [
                        -238.06716918945312,
                        179.6793212890625,
                        -331.56109619140625
                    ],
                    [
                        -118.74581909179688,
                        207.91445922851562,
                        376.58074951171875
                    ],
                    [
                        -118.74581909179688,
                        207.91445922851562,
                        -376.58074951171875
                    ],
                    [
                        -221.3924560546875,
                        67.38861083984375,
                        380.8387451171875
                    ],
                    [
                        -221.3924560546875,
                        67.38861083984375,
                        -380.8387451171875
                    ],
                    [
                        -252.39215087890625,
                        114.20498657226562,
                        349.42413330078125
                    ],
                    [
                        -252.39215087890625,
                        114.20498657226562,
                        -349.42413330078125
                    ],
                    [
                        -188.19436645507812,
                        218.21722412109375,
                        340.56842041015625
                    ],
                    [
                        -188.19436645507812,
                        218.21722412109375,
                        -340.56842041015625
                    ],
                    [
                        346.031982421875,
                        -261.49029541015625,
                        -103.03132629394531
                    ],
                    [
                        346.031982421875,
                        -261.49029541015625,
                        103.03132629394531
                    ],
                    [
                        256.2457275390625,
                        342.83123779296875,
                        -115.23927307128906
                    ],
                    [
                        256.2457275390625,
                        342.83123779296875,
                        115.23927307128906
                    ],
                    [
                        -340.252197265625,
                        260.2457275390625,
                        -121.50584411621094
                    ],
                    [
                        -340.252197265625,
                        260.2457275390625,
                        121.50584411621094
                    ],
                    [
                        -256.06695556640625,
                        -350.19012451171875,
                        -115.09197998046875
                    ],
                    [
                        -256.06695556640625,
                        -350.19012451171875,
                        115.09197998046875
                    ]
                ],
                "landing_zones": [
                    [
                        -135.403564453125,
                        -183.53469848632812,
                        385.583984375
                    ],
                    [
                        186.72564697265625,
                        -143.75189208984375,
                        375.9537353515625
                    ],
                    [
                        148.8671112060547,
                        183.23196411132812,
                        378.3380126953125
                    ],
                    [
                        -177.48162841796875,
                        141.96444702148438,
                        383.6285400390625
                    ],
                    [
                        -177.46823120117188,
                        136.76390075683594,
                        -385.4539794921875
                    ],
                    [
                        -136.04995727539062,
                        -180.5450439453125,
                        -386.6890869140625
                    ],
                    [
                        185.97024536132812,
                        -140.8934326171875,
                        -377.47686767578125
                    ],
                    [
                        146.47015380859375,
                        184.61114501953125,
                        -378.5303955078125
                    ]
                ]
            },
            "planetCSG": [
                {
                    "weight": [
                        1,
                        1,
                        1,
                        1
                    ],
                    "spec": "/pa/terrain/jungle/brushes/jungle_temple.json",
                    "proj": "BP_Bend",
                    "transform": [
                        -7.608365058898926,
                        -0.9632555842399597,
                        0.11779581755399704,
                        7.356296539306641,
                        -0.9632555842399597,
                        7.609272480010986,
                        0.007426675409078598,
                        0.4637925624847412,
                        -0.11779581755399704,
                        -0.007426675409078598,
                        -7.669095516204834,
                        -478.9316101074219
                    ],
                    "op": "BO_Add",
                    "rotation": 0,
                    "scale": [
                        7.670002460479736,
                        7.670002460479736,
                        7.670002460479736
                    ],
                    "height": 478.9882507324219,
                    "position": [
                        6.8201904296875,
                        0.42999267578125,
                        -443.9356689453125
                    ],
                    "weightHard": false,
                    "weightScale": [
                        1,
                        1,
                        1
                    ],
                    "mirrored": false,
                    "twinId": 9,
                    "flooded": false,
                    "pathable": false,
                    "mergeable": false,
                    "no_features": true,
                    "biomeColor": [
                        0,
                        0,
                        0,
                        1
                    ]
                },
                {
                    "weight": [
                        1,
                        1,
                        1,
                        1
                    ],
                    "spec": "/pa/terrain/jungle/brushes/jungle_temple.json",
                    "proj": "BP_Bend",
                    "transform": [
                        -7.608365058898926,
                        -0.9632555842399597,
                        0.11779581755399704,
                        7.356296539306641,
                        -0.9632555842399597,
                        7.609272480010986,
                        0.007426675409078598,
                        0.4637925922870636,
                        0.11779581755399704,
                        0.007426675409078598,
                        7.669095516204834,
                        478.931640625
                    ],
                    "op": "BO_Add",
                    "rotation": 0,
                    "scale": [
                        7.670002460479736,
                        7.670002460479736,
                        7.670002460479736
                    ],
                    "height": 478.9882507324219,
                    "position": [
                        6.8201904296875,
                        0.42999267578125,
                        -443.9356689453125
                    ],
                    "weightHard": false,
                    "weightScale": [
                        1,
                        1,
                        1
                    ],
                    "mirrored": true,
                    "twinId": 9,
                    "flooded": false,
                    "pathable": false,
                    "mergeable": false,
                    "no_features": true,
                    "biomeColor": [
                        0,
                        0,
                        0,
                        1
                    ]
                }
            ],
            "metal_spots": [
                [
                    72.11746215820312,
                    227.35845947265625,
                    376.35186767578125
                ],
                [
                    72.11746215820312,
                    227.35845947265625,
                    -376.35186767578125
                ],
                [
                    207.2105712890625,
                    118.20852661132812,
                    375.69732666015625
                ],
                [
                    207.2105712890625,
                    118.20852661132812,
                    -375.69732666015625
                ],
                [
                    228.22561645507812,
                    171.27218627929688,
                    342.34808349609375
                ],
                [
                    228.22561645507812,
                    171.27218627929688,
                    -342.34808349609375
                ],
                [
                    115.36972045898438,
                    257.3392028808594,
                    345.4970703125
                ],
                [
                    115.36972045898438,
                    257.3392028808594,
                    -345.4970703125
                ],
                [
                    192.68841552734375,
                    237.8929443359375,
                    324.06744384765625
                ],
                [
                    192.68841552734375,
                    237.8929443359375,
                    -324.06744384765625
                ],
                [
                    242.64608764648438,
                    -186.53262329101562,
                    323.16851806640625
                ],
                [
                    242.64608764648438,
                    -186.53262329101562,
                    -323.16851806640625
                ],
                [
                    120.8909912109375,
                    -201.54893493652344,
                    378.248046875
                ],
                [
                    120.8909912109375,
                    -201.54893493652344,
                    -378.248046875
                ],
                [
                    227.81423950195312,
                    -66.11004638671875,
                    375.02984619140625
                ],
                [
                    227.81423950195312,
                    -66.11004638671875,
                    -375.02984619140625
                ],
                [
                    260.6659851074219,
                    -109.80670166015625,
                    342.09893798828125
                ],
                [
                    260.6659851074219,
                    -109.80670166015625,
                    -342.09893798828125
                ],
                [
                    180.537841796875,
                    -223.21669006347656,
                    339.80419921875
                ],
                [
                    180.537841796875,
                    -223.21669006347656,
                    -339.80419921875
                ],
                [
                    -175.53616333007812,
                    -241.69427490234375,
                    334.56170654296875
                ],
                [
                    -175.53616333007812,
                    -241.69427490234375,
                    -334.56170654296875
                ],
                [
                    -194.26010131835938,
                    -119.25619506835938,
                    384.4849853515625
                ],
                [
                    -194.26010131835938,
                    -119.25619506835938,
                    -384.4849853515625
                ],
                [
                    -58.457763671875,
                    -226.218994140625,
                    382.4072265625
                ],
                [
                    -58.457763671875,
                    -226.218994140625,
                    -382.4072265625
                ],
                [
                    -106.94706726074219,
                    -258.4537658691406,
                    350.6905517578125
                ],
                [
                    -106.94706726074219,
                    -258.4537658691406,
                    -350.6905517578125
                ],
                [
                    -214.95184326171875,
                    -183.39862060546875,
                    348.02374267578125
                ],
                [
                    -214.95184326171875,
                    -183.39862060546875,
                    -348.02374267578125
                ],
                [
                    -238.06716918945312,
                    179.6793212890625,
                    331.56109619140625
                ],
                [
                    -238.06716918945312,
                    179.6793212890625,
                    -331.56109619140625
                ],
                [
                    -118.74581909179688,
                    207.91445922851562,
                    376.58074951171875
                ],
                [
                    -118.74581909179688,
                    207.91445922851562,
                    -376.58074951171875
                ],
                [
                    -221.3924560546875,
                    67.38861083984375,
                    380.8387451171875
                ],
                [
                    -221.3924560546875,
                    67.38861083984375,
                    -380.8387451171875
                ],
                [
                    -252.39215087890625,
                    114.20498657226562,
                    349.42413330078125
                ],
                [
                    -252.39215087890625,
                    114.20498657226562,
                    -349.42413330078125
                ],
                [
                    -188.19436645507812,
                    218.21722412109375,
                    340.56842041015625
                ],
                [
                    -188.19436645507812,
                    218.21722412109375,
                    -340.56842041015625
                ],
                [
                    346.031982421875,
                    -261.49029541015625,
                    -103.03132629394531
                ],
                [
                    346.031982421875,
                    -261.49029541015625,
                    103.03132629394531
                ],
                [
                    256.2457275390625,
                    342.83123779296875,
                    -115.23927307128906
                ],
                [
                    256.2457275390625,
                    342.83123779296875,
                    115.23927307128906
                ],
                [
                    -340.252197265625,
                    260.2457275390625,
                    -121.50584411621094
                ],
                [
                    -340.252197265625,
                    260.2457275390625,
                    121.50584411621094
                ],
                [
                    -256.06695556640625,
                    -350.19012451171875,
                    -115.09197998046875
                ],
                [
                    -256.06695556640625,
                    -350.19012451171875,
                    115.09197998046875
                ]
            ],
            "landing_zones": [
                [
                    -135.403564453125,
                    -183.53469848632812,
                    385.583984375
                ],
                [
                    186.72564697265625,
                    -143.75189208984375,
                    375.9537353515625
                ],
                [
                    148.8671112060547,
                    183.23196411132812,
                    378.3380126953125
                ],
                [
                    -177.48162841796875,
                    141.96444702148438,
                    383.6285400390625
                ],
                [
                    -177.46823120117188,
                    136.76390075683594,
                    -385.4539794921875
                ],
                [
                    -136.04995727539062,
                    -180.5450439453125,
                    -386.6890869140625
                ],
                [
                    185.97024536132812,
                    -140.8934326171875,
                    -377.47686767578125
                ],
                [
                    146.47015380859375,
                    184.61114501953125,
                    -378.5303955078125
                ]
            ]
        }
    ]
}