{
    "name": "Spawn Wars Team",
    "creator" : "[RLM]Gandalf",
    "version" : "1.0",
    "date" : "2015/01/25",
    "description" : "Everyone spawns apart with only your start metal points to keep you afloat until your team can liberate metal spots from the enemies",
    "note" : "Spawn Wars concept",
    "players": [
        8,
        8
    ],
    "planets": [
        {
            "name": "Guitarmans Hoedown :)",
            "mass": 5000,
            "position_x": 34200,
            "position_y": -100,
            "velocity_x": 0.3535383939743042,
            "velocity_y": 120.91194152832031,
            "required_thrust_to_move": 3,
            "starting_planet": true,
            "planet": {
                "seed": 151820496,
                "radius": 447,
                "heightRange": 0,
                "waterHeight": 0,
                "temperature": 0,
                "metalDensity": 0,
                "metalClusters": 0,
                "biomeScale": 50,
                "biome": "moon",
                "symmetryType": "terrain and CSG",
                "symmetricalMetal": true,
                "symmetricalStarts": false,
                "numArmies": 2,
                "landingZonesPerArmy": 0,
                "landingZoneSize": 300
            },
            "source": {
                "brushes": [
                    {
                        "weight": [
                            1,
                            1,
                            1,
                            1
                        ],
                        "spec": "/pa/terrain/jungle/brushes/jungle_temple.json",
                        "proj": "BP_Bend",
                        "transform": [
                            7.459722995758057,
                            0.0000363295002898667,
                            -0.06354817003011703,
                            -3.8025059700012207,
                            0.0000363295002898667,
                            7.459989070892334,
                            0.008529368788003922,
                            0.5103683471679688,
                            0.06354817003011703,
                            -0.008529368788003922,
                            7.459718227386475,
                            446.3641052246094
                        ],
                        "op": "BO_Add",
                        "rotation": 2.1019476964872256e-44,
                        "scale": [
                            7.459993839263916,
                            7.459993839263916,
                            7.459993839263916
                        ],
                        "height": 446.380615234375,
                        "position": [
                            -3.8025054931640625,
                            0.5103683471679688,
                            446.3641357421875
                        ],
                        "weightHard": false,
                        "weightScale": [
                            1,
                            1,
                            1
                        ],
                        "mirrored": false,
                        "twinId": 14,
                        "flooded": false,
                        "pathable": false,
                        "mergeable": false,
                        "no_features": true
                    },
                    {
                        "weight": [
                            1,
                            1,
                            1,
                            1
                        ],
                        "spec": "/pa/terrain/jungle/brushes/jungle_temple.json",
                        "proj": "BP_Bend",
                        "transform": [
                            7.459722995758057,
                            0.0000363295002898667,
                            -0.06354817003011703,
                            -3.8025059700012207,
                            0.0000363295002898667,
                            7.459989070892334,
                            0.008529368788003922,
                            0.510368287563324,
                            -0.06354817003011703,
                            0.008529368788003922,
                            -7.459718227386475,
                            -446.3641052246094
                        ],
                        "op": "BO_Add",
                        "rotation": 2.1019476964872256e-44,
                        "scale": [
                            7.459993839263916,
                            7.459993839263916,
                            7.459993839263916
                        ],
                        "height": 446.380615234375,
                        "position": [
                            -3.8025054931640625,
                            0.5103683471679688,
                            446.3641357421875
                        ],
                        "weightHard": false,
                        "weightScale": [
                            1,
                            1,
                            1
                        ],
                        "mirrored": true,
                        "twinId": 14,
                        "flooded": false,
                        "pathable": false,
                        "mergeable": false,
                        "no_features": true
                    }
                ]
            },
            "planetCSG": [
                {
                    "weight": [
                        1,
                        1,
                        1,
                        1
                    ],
                    "spec": "/pa/terrain/jungle/brushes/jungle_temple.json",
                    "proj": "BP_Bend",
                    "transform": [
                        7.459722995758057,
                        0.0000363295002898667,
                        -0.06354817003011703,
                        -3.9558393955230713,
                        0.0000363295002898667,
                        7.459989070892334,
                        0.008529368788003922,
                        0.5309486389160156,
                        0.06354817003011703,
                        -0.008529368788003922,
                        7.459718227386475,
                        464.36346435546875
                    ],
                    "op": "BO_Add",
                    "rotation": 2.1019476964872256e-44,
                    "scale": [
                        7.459993839263916,
                        7.459993839263916,
                        7.459993839263916
                    ],
                    "height": 464.380615234375,
                    "position": [
                        -3.8025054931640625,
                        0.5103683471679688,
                        446.3641357421875
                    ],
                    "weightHard": false,
                    "weightScale": [
                        1,
                        1,
                        1
                    ],
                    "mirrored": false,
                    "twinId": 14,
                    "flooded": false,
                    "pathable": false,
                    "mergeable": false,
                    "no_features": true,
                    "biomeColor": [
                        0,
                        0,
                        0,
                        1
                    ]
                },
                {
                    "weight": [
                        1,
                        1,
                        1,
                        1
                    ],
                    "spec": "/pa/terrain/jungle/brushes/jungle_temple.json",
                    "proj": "BP_Bend",
                    "transform": [
                        7.459722995758057,
                        0.0000363295002898667,
                        -0.06354817003011703,
                        -3.9558393955230713,
                        0.0000363295002898667,
                        7.459989070892334,
                        0.008529368788003922,
                        0.5309486389160156,
                        -0.06354817003011703,
                        0.008529368788003922,
                        -7.459718227386475,
                        -464.36346435546875
                    ],
                    "op": "BO_Add",
                    "rotation": 2.1019476964872256e-44,
                    "scale": [
                        7.459993839263916,
                        7.459993839263916,
                        7.459993839263916
                    ],
                    "height": 464.380615234375,
                    "position": [
                        -3.8025054931640625,
                        0.5103683471679688,
                        446.3641357421875
                    ],
                    "weightHard": false,
                    "weightScale": [
                        1,
                        1,
                        1
                    ],
                    "mirrored": true,
                    "twinId": 14,
                    "flooded": false,
                    "pathable": false,
                    "mergeable": false,
                    "no_features": true,
                    "biomeColor": [
                        0,
                        0,
                        0,
                        1
                    ]
                }
            ],
            "metal_spots": [
                [
                    -192.06170654296875,
                    76.162353515625,
                    394.47943115234375
                ],
                [
                    -192.06170654296875,
                    76.162353515625,
                    -394.47943115234375
                ],
                [
                    -144.57553100585938,
                    138.8737030029297,
                    398.2811279296875
                ],
                [
                    -144.57553100585938,
                    138.8737030029297,
                    -398.2811279296875
                ],
                [
                    -92.47900390625,
                    185.3753662109375,
                    394.1435546875
                ],
                [
                    -92.47900390625,
                    185.3753662109375,
                    -394.1435546875
                ],
                [
                    76.04405975341797,
                    193.25807189941406,
                    392.7373046875
                ],
                [
                    76.04405975341797,
                    193.25807189941406,
                    -392.7373046875
                ],
                [
                    134.50929260253906,
                    137.7421875,
                    400.7261962890625
                ],
                [
                    134.50929260253906,
                    137.7421875,
                    -400.7261962890625
                ],
                [
                    186.2472381591797,
                    86.71074676513672,
                    393.9718017578125
                ],
                [
                    186.2472381591797,
                    86.71074676513672,
                    -393.9718017578125
                ],
                [
                    75.76521301269531,
                    -203.54705810546875,
                    391.3587646484375
                ],
                [
                    75.76521301269531,
                    -203.54705810546875,
                    -391.3587646484375
                ],
                [
                    137.55499267578125,
                    -146.10556030273438,
                    400.785888671875
                ],
                [
                    137.55499267578125,
                    -146.10556030273438,
                    -400.785888671875
                ],
                [
                    195.17037963867188,
                    -79.81121826171875,
                    393.44915771484375
                ],
                [
                    195.17037963867188,
                    -79.81121826171875,
                    -393.44915771484375
                ],
                [
                    -190.7977752685547,
                    -83.17877197265625,
                    394.671875
                ],
                [
                    -190.7977752685547,
                    -83.17877197265625,
                    -394.671875
                ],
                [
                    -86.31484985351562,
                    -189.7598876953125,
                    396.20782470703125
                ],
                [
                    -86.31484985351562,
                    -189.7598876953125,
                    -396.20782470703125
                ],
                [
                    -139.2802734375,
                    -139.8214111328125,
                    400.76397705078125
                ],
                [
                    -139.2802734375,
                    -139.8214111328125,
                    -400.76397705078125
                ],
                [
                    -69.43639373779297,
                    -358.8690185546875,
                    256.81585693359375
                ],
                [
                    -69.43639373779297,
                    -358.8690185546875,
                    -256.81585693359375
                ],
                [
                    63.94233703613281,
                    -353.61871337890625,
                    263.30535888671875
                ],
                [
                    63.94233703613281,
                    -353.61871337890625,
                    -263.30535888671875
                ],
                [
                    350.51092529296875,
                    -63.315834045410156,
                    266.6365051269531
                ],
                [
                    350.51092529296875,
                    -63.315834045410156,
                    -266.6365051269531
                ],
                [
                    353.55426025390625,
                    69.72671508789062,
                    260.053955078125
                ],
                [
                    353.55426025390625,
                    69.72671508789062,
                    -260.053955078125
                ],
                [
                    60.59131622314453,
                    353.41455078125,
                    259.70526123046875
                ],
                [
                    60.59131622314453,
                    353.41455078125,
                    -259.70526123046875
                ],
                [
                    -66.33123779296875,
                    353.5382080078125,
                    259.12286376953125
                ],
                [
                    -66.33123779296875,
                    353.5382080078125,
                    -259.12286376953125
                ],
                [
                    -356.4443359375,
                    -64.91021728515625,
                    261.9815673828125
                ],
                [
                    -356.4443359375,
                    -64.91021728515625,
                    -261.9815673828125
                ],
                [
                    -355.4495849609375,
                    63.1021728515625,
                    260.219482421875
                ],
                [
                    -355.4495849609375,
                    63.1021728515625,
                    -260.219482421875
                ],
                [
                    403.4981689453125,
                    -171.79913330078125,
                    83.663330078125
                ],
                [
                    403.4981689453125,
                    -171.79913330078125,
                    -83.663330078125
                ],
                [
                    155.84033203125,
                    -404.83001708984375,
                    98.24822998046875
                ],
                [
                    155.84033203125,
                    -404.83001708984375,
                    -98.24822998046875
                ],
                [
                    -157.241943359375,
                    -408.8480224609375,
                    81.32989501953125
                ],
                [
                    -157.241943359375,
                    -408.8480224609375,
                    -81.32989501953125
                ],
                [
                    -408.87176513671875,
                    -167.5478515625,
                    66.96334838867188
                ],
                [
                    -408.87176513671875,
                    -167.5478515625,
                    -66.96334838867188
                ],
                [
                    -408.5123291015625,
                    159.76492309570312,
                    69.206298828125
                ],
                [
                    -408.5123291015625,
                    159.76492309570312,
                    -69.206298828125
                ],
                [
                    -163.54290771484375,
                    405.78594970703125,
                    81.20411682128906
                ],
                [
                    -163.54290771484375,
                    405.78594970703125,
                    -81.20411682128906
                ],
                [
                    165.32998657226562,
                    400.927490234375,
                    91.69635772705078
                ],
                [
                    165.32998657226562,
                    400.927490234375,
                    -91.69635772705078
                ],
                [
                    403.091064453125,
                    157.53875732421875,
                    98.20489501953125
                ],
                [
                    403.091064453125,
                    157.53875732421875,
                    -98.20489501953125
                ]
            ],
            "landing_zones": [
                [
                    -3.6902542114257812,
                    -0.9314308166503906,
                    -493.256591796875
                ],
                [
                    -2.9857177734375,
                    0.49481773376464844,
                    493.248046875
                ]
            ]
        }
    ]
}