{
    "name": "Violets Violence",
	"creator": "Gandalf",
	"version": "1",
	"date": "2015/02/01",
	"description": "Fins Revenge PA Version in my style",
    "players": [
            2,
            8
    ],
    "planets": [
        {
            "name": "Taco Tuesday",
            "mass": 10000,
            "position_x": 26000,
            "position_y": 500,
            "velocity_x": -2.6660945415496826,
            "velocity_y": 138.6365966796875,
            "required_thrust_to_move": 0,
            "starting_planet": true,
            "planet": {
                "seed": 171164512,
                "radius": 810,
                "heightRange": 83,
                "waterHeight": 43,
                "waterDepth": 100,
                "temperature": 68,
                "metalDensity": 0,
                "metalClusters": 0,
                "biomeScale": 50,
                "biome": "tropical",
                "symmetryType": "terrain",
                "symmetricalMetal": false,
                "symmetricalStarts": false,
                "numArmies": 2,
                "landingZonesPerArmy": 1,
                "landingZoneSize": 277
            },
            "source": {
                "metal_spots": [
                    [
                        -289.0859069824219,
                        270.7095031738281,
                        -712.7177734375
                    ],
                    [
                        -213.307373046875,
                        263.98358154296875,
                        -750.056396484375
                    ],
                    [
                        155.70050048828125,
                        84.44969177246094,
                        -802.8630981445312
                    ],
                    [
                        191.826171875,
                        102.19954681396484,
                        -789.5750732421875
                    ],
                    [
                        -93.30960845947266,
                        81.57891845703125,
                        -790.1581420898438
                    ],
                    [
                        -83.83613586425781,
                        121.87757873535156,
                        -789.7852783203125
                    ],
                    [
                        -45.24807357788086,
                        110.73021697998047,
                        -798.4417724609375
                    ],
                    [
                        261.8811340332031,
                        -776.4005737304688,
                        -27.189956665039062
                    ],
                    [
                        300.16552734375,
                        -766.4993896484375,
                        -26.066017150878906
                    ],
                    [
                        259.1963195800781,
                        -773.4993286132812,
                        10.681419372558594
                    ],
                    [
                        297.78021240234375,
                        -763.597900390625,
                        11.497795104980469
                    ],
                    [
                        -148.67440795898438,
                        -787.493408203125,
                        -19.946327209472656
                    ],
                    [
                        -150.3056640625,
                        -787.0431518554688,
                        15.0665283203125
                    ],
                    [
                        -111.7251205444336,
                        -798.3002319335938,
                        15.227622985839844
                    ],
                    [
                        -110.90625762939453,
                        -798.5235595703125,
                        -18.872535705566406
                    ],
                    [
                        21.51031494140625,
                        -363.6524658203125,
                        -737.133544921875
                    ],
                    [
                        -28.449981689453125,
                        -337.2564697265625,
                        -731.1436767578125
                    ],
                    [
                        -83.42962646484375,
                        -311.06195068359375,
                        -734.3082275390625
                    ],
                    [
                        -137.15521240234375,
                        -278.4576416015625,
                        -752.4134521484375
                    ],
                    [
                        -183.35777282714844,
                        -254.38043212890625,
                        -761.355224609375
                    ],
                    [
                        -211.84280395507812,
                        -604.2481079101562,
                        -477.4476318359375
                    ],
                    [
                        -243.55703735351562,
                        -587.804443359375,
                        -481.83819580078125
                    ],
                    [
                        -281.68402099609375,
                        -573.4337768554688,
                        -477.597900390625
                    ],
                    [
                        -323.1035461425781,
                        -549.4440307617188,
                        -477.9083251953125
                    ],
                    [
                        -354.0748596191406,
                        -521.0792846679688,
                        -489.00238037109375
                    ],
                    [
                        489.6892395019531,
                        -614.0238037109375,
                        144.07797241210938
                    ],
                    [
                        500.6170349121094,
                        -596.246826171875,
                        175.65049743652344
                    ],
                    [
                        525.2578125,
                        -578.847900390625,
                        158.54685974121094
                    ],
                    [
                        517.6439208984375,
                        -594.9625244140625,
                        127.06240844726562
                    ],
                    [
                        515.203125,
                        -597.6491088867188,
                        -123.03337097167969
                    ],
                    [
                        529.9793090820312,
                        -576.4423217773438,
                        -151.28382873535156
                    ],
                    [
                        499.1396484375,
                        -595.8562622070312,
                        -180.13253784179688
                    ],
                    [
                        483.3406982421875,
                        -616.6825561523438,
                        -153.1758575439453
                    ],
                    [
                        -618.4149169921875,
                        -532.8480224609375,
                        -38.05850601196289
                    ],
                    [
                        -587.0422973632812,
                        -569.23779296875,
                        -34.306766510009766
                    ],
                    [
                        -590.126953125,
                        -565.0678100585938,
                        21.272964477539062
                    ],
                    [
                        -617.8760375976562,
                        -531.0999755859375,
                        19.451383590698242
                    ],
                    [
                        -800.9920654296875,
                        -6.097038269042969,
                        -43.251773834228516
                    ],
                    [
                        -802.8544921875,
                        30.964805603027344,
                        -43.98295974731445
                    ],
                    [
                        -800.0074462890625,
                        -17.361228942871094,
                        45.79325866699219
                    ],
                    [
                        -802.412841796875,
                        21.937339782714844,
                        45.76628112792969
                    ],
                    [
                        -767.8873291015625,
                        -215.85284423828125,
                        121.93013000488281
                    ],
                    [
                        -749.5150146484375,
                        -260.5450744628906,
                        139.4375762939453
                    ],
                    [
                        -726.7476806640625,
                        -314.2809753417969,
                        148.16368103027344
                    ],
                    [
                        -767.9132080078125,
                        -202.8018798828125,
                        -101.27588653564453
                    ],
                    [
                        -752.6552734375,
                        -248.623291015625,
                        -123.01488494873047
                    ],
                    [
                        -731.8851318359375,
                        -300.058349609375,
                        -137.1141357421875
                    ],
                    [
                        -587.7767333984375,
                        -23.84039306640625,
                        549.6731567382812
                    ],
                    [
                        -619.138671875,
                        -29.430267333984375,
                        515.8180541992188
                    ],
                    [
                        -639.807861328125,
                        -26.439483642578125,
                        485.29400634765625
                    ],
                    [
                        -534.4559326171875,
                        -435.6373291015625,
                        -417.62060546875
                    ],
                    [
                        -520.6795654296875,
                        -415.3941650390625,
                        -451.7994384765625
                    ],
                    [
                        -501.8604736328125,
                        -401.01104736328125,
                        -482.37994384765625
                    ],
                    [
                        -663.692138671875,
                        -29.917510986328125,
                        -451.8050537109375
                    ],
                    [
                        -638.498046875,
                        -32.50482177734375,
                        -489.6829833984375
                    ],
                    [
                        -613.70263671875,
                        -27.369903564453125,
                        -522.2173461914062
                    ],
                    [
                        -514.0715942382812,
                        -405.0684509277344,
                        468.68798828125
                    ],
                    [
                        -526.212158203125,
                        -428.6686706542969,
                        431.6107177734375
                    ],
                    [
                        -529.9125366210938,
                        -455.8479309082031,
                        396.29974365234375
                    ],
                    [
                        326.1567687988281,
                        -508.1900634765625,
                        526.09130859375
                    ],
                    [
                        -196.9033203125,
                        -651.9345703125,
                        416.347412109375
                    ],
                    [
                        -231.75469970703125,
                        -637.5283203125,
                        419.60430908203125
                    ],
                    [
                        -275.270263671875,
                        -617.38818359375,
                        422.1739501953125
                    ],
                    [
                        -336.60565185546875,
                        -583.349609375,
                        428.87322998046875
                    ],
                    [
                        -97.29830932617188,
                        -332.11566162109375,
                        720.26904296875
                    ],
                    [
                        -163.30404663085938,
                        -311.44293212890625,
                        723.9576416015625
                    ],
                    [
                        -214.3985595703125,
                        -299.60162353515625,
                        726.1904296875
                    ],
                    [
                        -56.288330078125,
                        -371.0074462890625,
                        713.0462646484375
                    ],
                    [
                        -26.0130615234375,
                        -412.17645263671875,
                        700.8154296875
                    ],
                    [
                        273.8258361816406,
                        15.7130126953125,
                        768.47705078125
                    ],
                    [
                        288.21453857421875,
                        -21.4383544921875,
                        755.3558349609375
                    ],
                    [
                        310.4072265625,
                        -58.093963623046875,
                        744.1595458984375
                    ],
                    [
                        -155.33413696289062,
                        336.18414306640625,
                        718.3994140625
                    ],
                    [
                        -123.39668273925781,
                        328.5043029785156,
                        720.2850341796875
                    ],
                    [
                        -85.41702270507812,
                        318.929443359375,
                        726.7747802734375
                    ],
                    [
                        38.68806076049805,
                        91.48654174804688,
                        810.0819091796875
                    ],
                    [
                        22.7860107421875,
                        50.75010299682617,
                        815.2972412109375
                    ],
                    [
                        -14.665489196777344,
                        67.78797149658203,
                        811.22412109375
                    ],
                    [
                        -1.0372276306152344,
                        104.01016998291016,
                        805.280517578125
                    ],
                    [
                        -373.3824768066406,
                        -562.242431640625,
                        426.72796630859375
                    ],
                    [
                        -53.57395935058594,
                        69.08639526367188,
                        -802.6220703125
                    ],
                    [
                        227.94090270996094,
                        122.62569427490234,
                        -778.6776123046875
                    ],
                    [
                        -251.9391326904297,
                        270.65313720703125,
                        -736.646728515625
                    ],
                    [
                        318.15234375,
                        -478.2064208984375,
                        558.2973022460938
                    ],
                    [
                        347.0620422363281,
                        -527.377685546875,
                        490.9599609375
                    ],
                    [
                        12.448102951049805,
                        -693.5732421875,
                        402.1324462890625
                    ],
                    [
                        -9.433290481567383,
                        -712.377197265625,
                        373.61688232421875
                    ],
                    [
                        -30.228626251220703,
                        -731.6298828125,
                        344.41595458984375
                    ],
                    [
                        2.7610855102539062,
                        -632.45703125,
                        -493.32952880859375
                    ],
                    [
                        12.908668518066406,
                        -658.3121948242188,
                        -460.28460693359375
                    ],
                    [
                        17.4234619140625,
                        -679.6661376953125,
                        -426.38531494140625
                    ],
                    [
                        416.9615478515625,
                        -540.3682861328125,
                        -417.2584228515625
                    ],
                    [
                        390.0074157714844,
                        -533.8933715820312,
                        -451.88934326171875
                    ],
                    [
                        362.1777648925781,
                        -523.3018798828125,
                        -483.4822998046875
                    ]
                ],
                "landing_zones": [
                    [
                        -675.0146484375,
                        -231.30029296875,
                        -446.687744140625
                    ],
                    [
                        -664.0250244140625,
                        -245.09033203125,
                        453.78741455078125
                    ],
                    [
                        227.15060424804688,
                        -664.64208984375,
                        436.07177734375
                    ],
                    [
                        223.89846801757812,
                        -641.0816650390625,
                        -469.7413635253906
                    ]
                ]
            },
            "planetCSG": [
                {
                    "weight": [
                        1,
                        1,
                        1,
                        1
                    ],
                    "spec": "/pa/terrain/jungle/brushes/jungle_plateau_01.json",
                    "proj": "BP_Bend",
                    "transform": [
                        0.11505329608917236,
                        0.14146210253238678,
                        0.9401408433914185,
                        808.5448608398438,
                        -0.7169602513313293,
                        -0.60901939868927,
                        0.17937929928302765,
                        154.27073669433594,
                        0.6243751645088196,
                        -0.7253947257995605,
                        0.03273915499448776,
                        28.1564998626709
                    ],
                    "op": "BO_Add",
                    "rotation": 4.19022798538208,
                    "scale": [
                        0.957660436630249,
                        0.957660436630249,
                        0.957660436630249
                    ],
                    "height": 823.6121215820312,
                    "position": [
                        808.5447387695312,
                        154.2707061767578,
                        28.1566219329834
                    ],
                    "weightHard": false,
                    "weightScale": [
                        1,
                        1,
                        1
                    ],
                    "mirrored": false,
                    "twinId": 0,
                    "flooded": false,
                    "pathable": false,
                    "mergeable": false,
                    "no_features": false,
                    "biomeColor": [
                        0,
                        0,
                        0,
                        1
                    ]
                },
                {
                    "weight": [
                        1,
                        1,
                        1,
                        1
                    ],
                    "spec": "/pa/terrain/jungle/brushes/jungle_plateau_01.json",
                    "proj": "BP_Bend",
                    "transform": [
                        -0.09679495543241501,
                        0.9176339507102966,
                        -0.6795423626899719,
                        -482.3959045410156,
                        -1.0499626398086548,
                        -0.339567631483078,
                        -0.3089839816093445,
                        -219.34263610839844,
                        -0.4487850069999695,
                        0.5965240001678467,
                        0.869454026222229,
                        617.2110595703125
                    ],
                    "op": "BO_Add",
                    "rotation": 4.494146823883057,
                    "scale": [
                        1.1459490060806274,
                        1.1459490060806274,
                        1.1459490060806274
                    ],
                    "height": 813.4902954101562,
                    "position": [
                        -482.39581298828125,
                        -219.3426055908203,
                        617.2110595703125
                    ],
                    "weightHard": false,
                    "weightScale": [
                        1,
                        1,
                        1
                    ],
                    "mirrored": false,
                    "twinId": 0,
                    "flooded": false,
                    "pathable": false,
                    "mergeable": false,
                    "no_features": false,
                    "biomeColor": [
                        0,
                        0,
                        0,
                        1
                    ]
                },
                {
                    "weight": [
                        1,
                        1,
                        1,
                        1
                    ],
                    "spec": "/pa/terrain/jungle/brushes/jungle_plateau_01.json",
                    "proj": "BP_Bend",
                    "transform": [
                        0.204397514462471,
                        0.1798422932624817,
                        1.1786350011825562,
                        790.166748046875,
                        0.3630460500717163,
                        -1.1484311819076538,
                        0.11227460205554962,
                        75.26982879638672,
                        1.1356589794158936,
                        0.33476075530052185,
                        -0.2480241358280182,
                        -166.27745056152344
                    ],
                    "op": "BO_Add",
                    "rotation": 2.9499104022979736,
                    "scale": [
                        1.2096703052520752,
                        1.2096703052520752,
                        1.2096703052520752
                    ],
                    "height": 810.9730834960938,
                    "position": [
                        790.1668090820312,
                        75.26982879638672,
                        -166.2775421142578
                    ],
                    "weightHard": false,
                    "weightScale": [
                        1,
                        1,
                        1
                    ],
                    "mirrored": false,
                    "twinId": 0,
                    "flooded": false,
                    "pathable": false,
                    "mergeable": false,
                    "no_features": false,
                    "biomeColor": [
                        0,
                        0,
                        0,
                        1
                    ]
                },
                {
                    "weight": [
                        1,
                        1,
                        1,
                        1
                    ],
                    "spec": "/pa/terrain/jungle/brushes/jungle_plateau_01.json",
                    "proj": "BP_Bend",
                    "transform": [
                        -0.32306188344955444,
                        0.14764688909053802,
                        0.817520797252655,
                        749.41455078125,
                        0.829797089099884,
                        0.01542210578918457,
                        0.3251277208328247,
                        298.0419006347656,
                        0.039710670709609985,
                        0.8789034485816956,
                        -0.1430402249097824,
                        -131.123779296875
                    ],
                    "op": "BO_Add",
                    "rotation": 1.994469404220581,
                    "scale": [
                        0.8913524150848389,
                        0.8913524150848389,
                        0.8913524150848389
                    ],
                    "height": 817.0953979492188,
                    "position": [
                        749.4146728515625,
                        298.0419616699219,
                        -131.12403869628906
                    ],
                    "weightHard": false,
                    "weightScale": [
                        1,
                        1,
                        1
                    ],
                    "mirrored": false,
                    "twinId": 0,
                    "flooded": false,
                    "pathable": false,
                    "mergeable": false,
                    "no_features": false,
                    "biomeColor": [
                        0,
                        0,
                        0,
                        1
                    ]
                },
                {
                    "weight": [
                        1,
                        1,
                        1,
                        1
                    ],
                    "spec": "/pa/terrain/jungle/brushes/jungle_plateau_01.json",
                    "proj": "BP_Bend",
                    "transform": [
                        0.16516949236392975,
                        0.07381486147642136,
                        1.1422408819198608,
                        811.3556518554688,
                        -1.0428391695022583,
                        -0.4660481810569763,
                        0.18091322481632233,
                        128.50613403320312,
                        0.471857488155365,
                        -1.0558382272720337,
                        6.893152715292672e-8,
                        0.00004896338941762224
                    ],
                    "op": "BO_Add",
                    "rotation": 4.449193000793457,
                    "scale": [
                        1.1564791202545166,
                        1.1564791202545166,
                        1.1564791202545166
                    ],
                    "height": 821.4693603515625,
                    "position": [
                        811.3556518554688,
                        128.50613403320312,
                        0
                    ],
                    "weightHard": false,
                    "weightScale": [
                        1,
                        1,
                        1
                    ],
                    "mirrored": false,
                    "twinId": 0,
                    "flooded": false,
                    "pathable": false,
                    "mergeable": false,
                    "no_features": false,
                    "biomeColor": [
                        0,
                        0,
                        0,
                        1
                    ]
                },
                {
                    "weight": [
                        1,
                        1,
                        1,
                        1
                    ],
                    "spec": "/pa/terrain/jungle/brushes/jungle_plateau_01.json",
                    "proj": "BP_Bend",
                    "transform": [
                        0.4709838926792145,
                        -0.6797665357589722,
                        -0.17402592301368713,
                        -168.3708038330078,
                        0.09911083430051804,
                        -0.14304569363594055,
                        0.8269874453544617,
                        800.11376953125,
                        -0.6946542859077454,
                        -0.4812990427017212,
                        0,
                        0
                    ],
                    "op": "BO_Add",
                    "rotation": 1.1722849607467651,
                    "scale": [
                        0.8450996279716492,
                        0.8450996279716492,
                        0.8450996279716492
                    ],
                    "height": 817.6373901367188,
                    "position": [
                        -168.37081909179688,
                        800.1138916015625,
                        0
                    ],
                    "weightHard": false,
                    "weightScale": [
                        1,
                        1,
                        1
                    ],
                    "mirrored": false,
                    "twinId": 0,
                    "flooded": false,
                    "pathable": false,
                    "mergeable": false,
                    "no_features": false,
                    "biomeColor": [
                        0,
                        0,
                        0,
                        1
                    ]
                },
                {
                    "weight": [
                        1,
                        1,
                        1,
                        1
                    ],
                    "spec": "/pa/terrain/jungle/brushes/jungle_plateau_01.json",
                    "proj": "BP_Bend",
                    "transform": [
                        0.0887896791100502,
                        0.03202094882726669,
                        0.8032511472702026,
                        812.3048095703125,
                        -0.771108865737915,
                        0.23181311786174774,
                        0.07599568367004395,
                        76.85224914550781,
                        -0.22722025215625763,
                        -0.7741826176643372,
                        0.05597859248518944,
                        56.60953903198242
                    ],
                    "op": "BO_Add",
                    "rotation": 5.092198371887207,
                    "scale": [
                        0.8087778091430664,
                        0.8087778091430664,
                        0.8087778091430664
                    ],
                    "height": 817.8937377929688,
                    "position": [
                        812.304931640625,
                        76.85225677490234,
                        56.609458923339844
                    ],
                    "weightHard": false,
                    "weightScale": [
                        1,
                        1,
                        1
                    ],
                    "mirrored": false,
                    "twinId": 0,
                    "flooded": false,
                    "pathable": false,
                    "mergeable": false,
                    "no_features": false,
                    "biomeColor": [
                        0,
                        0,
                        0,
                        1
                    ]
                },
                {
                    "weight": [
                        1,
                        1,
                        1,
                        1
                    ],
                    "spec": "/pa/terrain/jungle/brushes/jungle_plateau_01.json",
                    "proj": "BP_Bend",
                    "transform": [
                        -0.5705655217170715,
                        0.2896549701690674,
                        -0.5114384889602661,
                        -508.5809020996094,
                        -0.23301725089550018,
                        -0.7658439874649048,
                        -0.17378224432468414,
                        -172.81126403808594,
                        -0.5396038889884949,
                        0.024439632892608643,
                        0.6158284544944763,
                        612.3876342773438
                    ],
                    "op": "BO_Add",
                    "rotation": 3.514404773712158,
                    "scale": [
                        0.8191546201705933,
                        0.8191546201705933,
                        0.8191546201705933
                    ],
                    "height": 814.5776977539062,
                    "position": [
                        -508.5809020996094,
                        -172.81126403808594,
                        612.3877563476562
                    ],
                    "weightHard": false,
                    "weightScale": [
                        1,
                        1,
                        1
                    ],
                    "mirrored": false,
                    "twinId": 0,
                    "flooded": false,
                    "pathable": false,
                    "mergeable": false,
                    "no_features": false,
                    "biomeColor": [
                        0,
                        0,
                        0,
                        1
                    ]
                },
                {
                    "weight": [
                        1,
                        1,
                        1,
                        1
                    ],
                    "spec": "/pa/terrain/jungle/brushes/jungle_plateau_01.json",
                    "proj": "BP_Bend",
                    "transform": [
                        -0.010973174124956131,
                        -0.5966708660125732,
                        -0.480821818113327,
                        -510.4770812988281,
                        0.7461451888084412,
                        0.10122527182102203,
                        -0.1426427662372589,
                        -151.44041442871094,
                        0.17456546425819397,
                        -0.4701738953590393,
                        0.5794735550880432,
                        615.2132568359375
                    ],
                    "op": "BO_Add",
                    "rotation": 1.5036861896514893,
                    "scale": [
                        0.7663720846176147,
                        0.7663720846176147,
                        0.7663720846176147
                    ],
                    "height": 813.6389770507812,
                    "position": [
                        -510.4770812988281,
                        -151.44041442871094,
                        615.2131958007812
                    ],
                    "weightHard": false,
                    "weightScale": [
                        1,
                        1,
                        1
                    ],
                    "mirrored": false,
                    "twinId": 0,
                    "flooded": false,
                    "pathable": false,
                    "mergeable": false,
                    "no_features": false,
                    "biomeColor": [
                        0,
                        0,
                        0,
                        1
                    ]
                },
                {
                    "weight": [
                        1,
                        1,
                        1,
                        1
                    ],
                    "spec": "/pa/terrain/jungle/brushes/jungle_plateau_01.json",
                    "proj": "BP_Bend",
                    "transform": [
                        0.24544328451156616,
                        -0.819582462310791,
                        0.11200804263353348,
                        109.3218002319336,
                        0.6503623127937317,
                        0.11899780482053757,
                        -0.5544115304946899,
                        -541.1152954101562,
                        0.5111654996871948,
                        0.24213165044784546,
                        0.6516025066375732,
                        635.975341796875
                    ],
                    "op": "BO_Add",
                    "rotation": 1.327768325805664,
                    "scale": [
                        0.8628462553024292,
                        0.8628462553024292,
                        0.8628462553024292
                    ],
                    "height": 842.1529541015625,
                    "position": [
                        109.32178497314453,
                        -541.1151733398438,
                        635.9754028320312
                    ],
                    "weightHard": false,
                    "weightScale": [
                        1,
                        1,
                        1
                    ],
                    "mirrored": false,
                    "twinId": 0,
                    "flooded": false,
                    "pathable": false,
                    "mergeable": false,
                    "no_features": false,
                    "biomeColor": [
                        0,
                        0,
                        0,
                        1
                    ]
                },
                {
                    "weight": [
                        1,
                        1,
                        1,
                        1
                    ],
                    "spec": "/pa/terrain/jungle/brushes/jungle_plateau_01.json",
                    "proj": "BP_Bend",
                    "transform": [
                        0.4111492335796356,
                        0.046982038766145706,
                        1.167002558708191,
                        770.2342529296875,
                        -1.0102744102478027,
                        -0.6064873933792114,
                        0.3803483545780182,
                        251.0340118408203,
                        0.586044430732727,
                        -1.0784766674041748,
                        -0.16305246949195862,
                        -107.61637878417969
                    ],
                    "op": "BO_Add",
                    "rotation": 4.529689788818359,
                    "scale": [
                        1.2382028102874756,
                        1.2382028102874756,
                        1.2382028102874756
                    ],
                    "height": 817.2271728515625,
                    "position": [
                        770.234375,
                        251.03402709960938,
                        -107.61644744873047
                    ],
                    "weightHard": false,
                    "weightScale": [
                        1,
                        1,
                        1
                    ],
                    "mirrored": false,
                    "twinId": 0,
                    "flooded": false,
                    "pathable": false,
                    "mergeable": false,
                    "no_features": false,
                    "biomeColor": [
                        0,
                        0,
                        0,
                        1
                    ]
                },
                {
                    "weight": [
                        1,
                        1,
                        1,
                        1
                    ],
                    "spec": "/pa/terrain/desert/brushes/desert_plateau_12.json",
                    "proj": "BP_Bend",
                    "transform": [
                        -1.9026234149932861,
                        6.632070064544678,
                        -2.259168863296509,
                        -237.31796264648438,
                        -4.839711666107178,
                        -2.936785936355591,
                        -4.545399188995361,
                        -477.4786376953125,
                        -5.066102027893066,
                        0.3148113489151001,
                        5.190730094909668,
                        545.2684936523438
                    ],
                    "op": "BO_Add",
                    "rotation": -1.9699987173080444,
                    "scale": [
                        7.260039329528809,
                        7.260039329528809,
                        7.260039329528809
                    ],
                    "height": 762.642333984375,
                    "position": [
                        -247.89804077148438,
                        -498.7655029296875,
                        569.5775146484375
                    ],
                    "weightHard": false,
                    "weightScale": [
                        1,
                        1,
                        1
                    ],
                    "mirrored": false,
                    "twinId": 0,
                    "flooded": false,
                    "pathable": true,
                    "mergeable": false,
                    "no_features": false,
                    "biomeColor": [
                        0,
                        0,
                        0,
                        1
                    ]
                },
                {
                    "weight": [
                        1,
                        1,
                        1,
                        1
                    ],
                    "spec": "/pa/terrain/desert/brushes/desert_plateau_12.json",
                    "proj": "BP_Bend",
                    "transform": [
                        -3.745147705078125,
                        -5.919544696807861,
                        -1.9081475734710693,
                        -200.43743896484375,
                        -4.340750694274902,
                        4.082971572875977,
                        -4.146732807159424,
                        -435.58502197265625,
                        4.454202175140381,
                        -0.9982500076293945,
                        -5.645506381988525,
                        -593.0206298828125
                    ],
                    "op": "BO_Add",
                    "rotation": 1.3599992990493774,
                    "scale": [
                        7.260039329528809,
                        7.260039329528809,
                        7.260039329528809
                    ],
                    "height": 762.6159057617188,
                    "position": [
                        -209.37368774414062,
                        -455.0050048828125,
                        -619.45947265625
                    ],
                    "weightHard": false,
                    "weightScale": [
                        1,
                        1,
                        1
                    ],
                    "mirrored": false,
                    "twinId": 0,
                    "flooded": false,
                    "pathable": true,
                    "mergeable": false,
                    "no_features": false,
                    "biomeColor": [
                        0,
                        0,
                        0,
                        1
                    ]
                },
                {
                    "weight": [
                        1,
                        1,
                        1,
                        1
                    ],
                    "spec": "/pa/terrain/desert/brushes/desert_pit_01.json",
                    "proj": "BP_Bend",
                    "transform": [
                        0.3694164752960205,
                        -5.755814552307129,
                        10.283002853393555,
                        706.0677490234375,
                        4.94279146194458,
                        9.415006637573242,
                        5.092392921447754,
                        349.66192626953125,
                        -10.697587013244629,
                        4.151415824890137,
                        2.70802640914917,
                        185.94277954101562
                    ],
                    "op": "BO_Subtract",
                    "rotation": 0.8299998044967651,
                    "scale": [
                        11.790080070495605,
                        11.790080070495605,
                        11.790080070495605
                    ],
                    "height": 809.549072265625,
                    "position": [
                        706.067626953125,
                        349.661865234375,
                        185.94287109375
                    ],
                    "weightHard": false,
                    "weightScale": [
                        1,
                        1,
                        1
                    ],
                    "mirrored": false,
                    "twinId": 0,
                    "flooded": true,
                    "pathable": true,
                    "mergeable": false,
                    "no_features": false,
                    "biomeColor": [
                        0,
                        0,
                        0,
                        1
                    ]
                },
                {
                    "weight": [
                        1,
                        1,
                        1,
                        1
                    ],
                    "spec": "/pa/terrain/desert/brushes/desert_pit_01.json",
                    "proj": "BP_Bend",
                    "transform": [
                        0.7534672021865845,
                        -11.591713905334473,
                        2.017533302307129,
                        136.32765197753906,
                        1.7965785264968872,
                        2.1113038063049316,
                        11.459525108337402,
                        774.3367309570312,
                        -11.628009796142578,
                        -0.4249093532562256,
                        1.9012782573699951,
                        128.4721221923828
                    ],
                    "op": "BO_Subtract",
                    "rotation": 1.3599992990493774,
                    "scale": [
                        11.790080070495605,
                        11.790080070495605,
                        11.790080070495605
                    ],
                    "height": 796.6727905273438,
                    "position": [
                        136.32763671875,
                        774.3366088867188,
                        128.47216796875
                    ],
                    "weightHard": false,
                    "weightScale": [
                        1,
                        1,
                        1
                    ],
                    "mirrored": false,
                    "twinId": 0,
                    "flooded": true,
                    "pathable": true,
                    "mergeable": false,
                    "no_features": false,
                    "biomeColor": [
                        0,
                        0,
                        0,
                        1
                    ]
                },
                {
                    "weight": [
                        1,
                        1,
                        1,
                        1
                    ],
                    "spec": "/pa/terrain/desert/brushes/desert_pit_01.json",
                    "proj": "BP_Bend",
                    "transform": [
                        7.381536960601807,
                        -2.0210912227630615,
                        -5.94346809387207,
                        -488.61761474609375,
                        5.622475624084473,
                        -1.9523072242736816,
                        7.646762847900391,
                        628.6469116210938,
                        -2.7923834323883057,
                        -9.273639678955078,
                        -0.31449776887893677,
                        -25.855131149291992
                    ],
                    "op": "BO_Subtract",
                    "rotation": -5.3299946784973145,
                    "scale": [
                        9.690032005310059,
                        9.690032005310059,
                        9.690032005310059
                    ],
                    "height": 796.6258544921875,
                    "position": [
                        -488.61767578125,
                        628.64697265625,
                        -25.85516357421875
                    ],
                    "weightHard": false,
                    "weightScale": [
                        1,
                        1,
                        1
                    ],
                    "mirrored": false,
                    "twinId": 0,
                    "flooded": true,
                    "pathable": true,
                    "mergeable": false,
                    "no_features": false,
                    "biomeColor": [
                        0,
                        0,
                        0,
                        1
                    ]
                },
                {
                    "weight": [
                        1,
                        1,
                        1,
                        1
                    ],
                    "spec": "/pa/terrain/desert/brushes/desert_pit_01.json",
                    "proj": "BP_Bend",
                    "transform": [
                        2.438394069671631,
                        5.210662841796875,
                        10.291219711303711,
                        704.5731201171875,
                        1.6933939456939697,
                        -10.566376686096191,
                        4.9487481117248535,
                        338.8087158203125,
                        11.410198211669922,
                        0.45462703704833984,
                        -2.933711051940918,
                        -200.85218811035156
                    ],
                    "op": "BO_Subtract",
                    "rotation": 3.549997329711914,
                    "scale": [
                        11.790080070495605,
                        11.790080070495605,
                        11.790080070495605
                    ],
                    "height": 807.1903686523438,
                    "position": [
                        704.5731201171875,
                        338.8086853027344,
                        -200.852294921875
                    ],
                    "weightHard": false,
                    "weightScale": [
                        1,
                        1,
                        1
                    ],
                    "mirrored": false,
                    "twinId": 0,
                    "flooded": true,
                    "pathable": true,
                    "mergeable": false,
                    "no_features": false,
                    "biomeColor": [
                        0,
                        0,
                        0,
                        1
                    ]
                },
                {
                    "weight": [
                        1,
                        1,
                        1,
                        1
                    ],
                    "spec": "/pa/terrain/desert/brushes/desert_pit_01.json",
                    "proj": "BP_Bend",
                    "transform": [
                        6.222618579864502,
                        10.004396438598633,
                        0.443936824798584,
                        29.99770736694336,
                        1.6692053079605103,
                        -1.5515353679656982,
                        11.567732810974121,
                        781.655029296875,
                        9.874144554138184,
                        -6.042416095733643,
                        -2.235269784927368,
                        -151.04168701171875
                    ],
                    "op": "BO_Subtract",
                    "rotation": -1.0599995851516724,
                    "scale": [
                        11.790080070495605,
                        11.790080070495605,
                        11.790080070495605
                    ],
                    "height": 796.6795043945312,
                    "position": [
                        29.997711181640625,
                        781.6551513671875,
                        -151.041748046875
                    ],
                    "weightHard": false,
                    "weightScale": [
                        1,
                        1,
                        1
                    ],
                    "mirrored": false,
                    "twinId": 0,
                    "flooded": true,
                    "pathable": true,
                    "mergeable": false,
                    "no_features": false,
                    "biomeColor": [
                        0,
                        0,
                        0,
                        1
                    ]
                },
                {
                    "weight": [
                        1,
                        1,
                        1,
                        1
                    ],
                    "spec": "/pa/terrain/moon/brushes/moon_crater_02.json",
                    "proj": "BP_Bend",
                    "transform": [
                        0.3664492964744568,
                        0.6729874014854431,
                        1.381738543510437,
                        700.9232788085938,
                        0.6729874014854431,
                        1.2067869901657104,
                        -0.7662580609321594,
                        -388.70458984375,
                        -1.381738543510437,
                        0.7662580609321594,
                        -0.006763105280697346,
                        -3.4307637214660645
                    ],
                    "op": "BO_Subtract",
                    "rotation": 0,
                    "scale": [
                        1.5799994468688965,
                        1.5799994468688965,
                        1.5799994468688965
                    ],
                    "height": 801.4963989257812,
                    "position": [
                        700.9232788085938,
                        -388.7046203613281,
                        -3.4307785034179688
                    ],
                    "weightHard": false,
                    "weightScale": [
                        1,
                        1,
                        1
                    ],
                    "mirrored": false,
                    "twinId": 0,
                    "flooded": true,
                    "pathable": true,
                    "mergeable": true,
                    "no_features": false,
                    "biomeColor": [
                        0,
                        0,
                        0,
                        1
                    ]
                },
                {
                    "weight": [
                        1,
                        1,
                        1,
                        1
                    ],
                    "spec": "/pa/terrain/moon/brushes/moon_crater_02.json",
                    "proj": "BP_Bend",
                    "transform": [
                        0.3312135934829712,
                        0.7160903811454773,
                        1.9245538711547852,
                        738.5933227539062,
                        0.7160903811454773,
                        1.7867752313613892,
                        -0.7880638837814331,
                        -302.4382629394531,
                        -1.9245538711547852,
                        0.7880638837814331,
                        0.03798983618617058,
                        14.579503059387207
                    ],
                    "op": "BO_Subtract",
                    "rotation": 0,
                    "scale": [
                        2.0799989700317383,
                        2.0799989700317383,
                        2.0799989700317383
                    ],
                    "height": 798.2490844726562,
                    "position": [
                        738.5933227539062,
                        -302.4382629394531,
                        14.579429626464844
                    ],
                    "weightHard": false,
                    "weightScale": [
                        1,
                        1,
                        1
                    ],
                    "mirrored": false,
                    "twinId": 0,
                    "flooded": true,
                    "pathable": true,
                    "mergeable": true,
                    "no_features": false,
                    "biomeColor": [
                        0,
                        0,
                        0,
                        1
                    ]
                }
            ],
            "metal_spots": [
                [
                    -289.0859069824219,
                    270.7095031738281,
                    -712.7177734375
                ],
                [
                    -213.307373046875,
                    263.98358154296875,
                    -750.056396484375
                ],
                [
                    155.70050048828125,
                    84.44969177246094,
                    -802.8630981445312
                ],
                [
                    191.826171875,
                    102.19954681396484,
                    -789.5750732421875
                ],
                [
                    -93.30960845947266,
                    81.57891845703125,
                    -790.1581420898438
                ],
                [
                    -83.83613586425781,
                    121.87757873535156,
                    -789.7852783203125
                ],
                [
                    -45.24807357788086,
                    110.73021697998047,
                    -798.4417724609375
                ],
                [
                    261.8811340332031,
                    -776.4005737304688,
                    -27.189956665039062
                ],
                [
                    300.16552734375,
                    -766.4993896484375,
                    -26.066017150878906
                ],
                [
                    259.1963195800781,
                    -773.4993286132812,
                    10.681419372558594
                ],
                [
                    297.78021240234375,
                    -763.597900390625,
                    11.497795104980469
                ],
                [
                    -148.67440795898438,
                    -787.493408203125,
                    -19.946327209472656
                ],
                [
                    -150.3056640625,
                    -787.0431518554688,
                    15.0665283203125
                ],
                [
                    -111.7251205444336,
                    -798.3002319335938,
                    15.227622985839844
                ],
                [
                    -110.90625762939453,
                    -798.5235595703125,
                    -18.872535705566406
                ],
                [
                    21.51031494140625,
                    -363.6524658203125,
                    -737.133544921875
                ],
                [
                    -28.449981689453125,
                    -337.2564697265625,
                    -731.1436767578125
                ],
                [
                    -83.42962646484375,
                    -311.06195068359375,
                    -734.3082275390625
                ],
                [
                    -137.15521240234375,
                    -278.4576416015625,
                    -752.4134521484375
                ],
                [
                    -183.35777282714844,
                    -254.38043212890625,
                    -761.355224609375
                ],
                [
                    -211.84280395507812,
                    -604.2481079101562,
                    -477.4476318359375
                ],
                [
                    -243.55703735351562,
                    -587.804443359375,
                    -481.83819580078125
                ],
                [
                    -281.68402099609375,
                    -573.4337768554688,
                    -477.597900390625
                ],
                [
                    -323.1035461425781,
                    -549.4440307617188,
                    -477.9083251953125
                ],
                [
                    -354.0748596191406,
                    -521.0792846679688,
                    -489.00238037109375
                ],
                [
                    489.6892395019531,
                    -614.0238037109375,
                    144.07797241210938
                ],
                [
                    500.6170349121094,
                    -596.246826171875,
                    175.65049743652344
                ],
                [
                    525.2578125,
                    -578.847900390625,
                    158.54685974121094
                ],
                [
                    517.6439208984375,
                    -594.9625244140625,
                    127.06240844726562
                ],
                [
                    515.203125,
                    -597.6491088867188,
                    -123.03337097167969
                ],
                [
                    529.9793090820312,
                    -576.4423217773438,
                    -151.28382873535156
                ],
                [
                    499.1396484375,
                    -595.8562622070312,
                    -180.13253784179688
                ],
                [
                    483.3406982421875,
                    -616.6825561523438,
                    -153.1758575439453
                ],
                [
                    -618.4149169921875,
                    -532.8480224609375,
                    -38.05850601196289
                ],
                [
                    -587.0422973632812,
                    -569.23779296875,
                    -34.306766510009766
                ],
                [
                    -590.126953125,
                    -565.0678100585938,
                    21.272964477539062
                ],
                [
                    -617.8760375976562,
                    -531.0999755859375,
                    19.451383590698242
                ],
                [
                    -800.9920654296875,
                    -6.097038269042969,
                    -43.251773834228516
                ],
                [
                    -802.8544921875,
                    30.964805603027344,
                    -43.98295974731445
                ],
                [
                    -800.0074462890625,
                    -17.361228942871094,
                    45.79325866699219
                ],
                [
                    -802.412841796875,
                    21.937339782714844,
                    45.76628112792969
                ],
                [
                    -767.8873291015625,
                    -215.85284423828125,
                    121.93013000488281
                ],
                [
                    -749.5150146484375,
                    -260.5450744628906,
                    139.4375762939453
                ],
                [
                    -726.7476806640625,
                    -314.2809753417969,
                    148.16368103027344
                ],
                [
                    -767.9132080078125,
                    -202.8018798828125,
                    -101.27588653564453
                ],
                [
                    -752.6552734375,
                    -248.623291015625,
                    -123.01488494873047
                ],
                [
                    -731.8851318359375,
                    -300.058349609375,
                    -137.1141357421875
                ],
                [
                    -587.7767333984375,
                    -23.84039306640625,
                    549.6731567382812
                ],
                [
                    -619.138671875,
                    -29.430267333984375,
                    515.8180541992188
                ],
                [
                    -639.807861328125,
                    -26.439483642578125,
                    485.29400634765625
                ],
                [
                    -534.4559326171875,
                    -435.6373291015625,
                    -417.62060546875
                ],
                [
                    -520.6795654296875,
                    -415.3941650390625,
                    -451.7994384765625
                ],
                [
                    -501.8604736328125,
                    -401.01104736328125,
                    -482.37994384765625
                ],
                [
                    -663.692138671875,
                    -29.917510986328125,
                    -451.8050537109375
                ],
                [
                    -638.498046875,
                    -32.50482177734375,
                    -489.6829833984375
                ],
                [
                    -613.70263671875,
                    -27.369903564453125,
                    -522.2173461914062
                ],
                [
                    -514.0715942382812,
                    -405.0684509277344,
                    468.68798828125
                ],
                [
                    -526.212158203125,
                    -428.6686706542969,
                    431.6107177734375
                ],
                [
                    -529.9125366210938,
                    -455.8479309082031,
                    396.29974365234375
                ],
                [
                    326.1567687988281,
                    -508.1900634765625,
                    526.09130859375
                ],
                [
                    -196.9033203125,
                    -651.9345703125,
                    416.347412109375
                ],
                [
                    -231.75469970703125,
                    -637.5283203125,
                    419.60430908203125
                ],
                [
                    -275.270263671875,
                    -617.38818359375,
                    422.1739501953125
                ],
                [
                    -336.60565185546875,
                    -583.349609375,
                    428.87322998046875
                ],
                [
                    -97.29830932617188,
                    -332.11566162109375,
                    720.26904296875
                ],
                [
                    -163.30404663085938,
                    -311.44293212890625,
                    723.9576416015625
                ],
                [
                    -214.3985595703125,
                    -299.60162353515625,
                    726.1904296875
                ],
                [
                    -56.288330078125,
                    -371.0074462890625,
                    713.0462646484375
                ],
                [
                    -26.0130615234375,
                    -412.17645263671875,
                    700.8154296875
                ],
                [
                    273.8258361816406,
                    15.7130126953125,
                    768.47705078125
                ],
                [
                    288.21453857421875,
                    -21.4383544921875,
                    755.3558349609375
                ],
                [
                    310.4072265625,
                    -58.093963623046875,
                    744.1595458984375
                ],
                [
                    -155.33413696289062,
                    336.18414306640625,
                    718.3994140625
                ],
                [
                    -123.39668273925781,
                    328.5043029785156,
                    720.2850341796875
                ],
                [
                    -85.41702270507812,
                    318.929443359375,
                    726.7747802734375
                ],
                [
                    38.68806076049805,
                    91.48654174804688,
                    810.0819091796875
                ],
                [
                    22.7860107421875,
                    50.75010299682617,
                    815.2972412109375
                ],
                [
                    -14.665489196777344,
                    67.78797149658203,
                    811.22412109375
                ],
                [
                    -1.0372276306152344,
                    104.01016998291016,
                    805.280517578125
                ],
                [
                    -373.3824768066406,
                    -562.242431640625,
                    426.72796630859375
                ],
                [
                    -53.57395935058594,
                    69.08639526367188,
                    -802.6220703125
                ],
                [
                    227.94090270996094,
                    122.62569427490234,
                    -778.6776123046875
                ],
                [
                    -251.9391326904297,
                    270.65313720703125,
                    -736.646728515625
                ],
                [
                    318.15234375,
                    -478.2064208984375,
                    558.2973022460938
                ],
                [
                    347.0620422363281,
                    -527.377685546875,
                    490.9599609375
                ],
                [
                    12.448102951049805,
                    -693.5732421875,
                    402.1324462890625
                ],
                [
                    -9.433290481567383,
                    -712.377197265625,
                    373.61688232421875
                ],
                [
                    -30.228626251220703,
                    -731.6298828125,
                    344.41595458984375
                ],
                [
                    2.7610855102539062,
                    -632.45703125,
                    -493.32952880859375
                ],
                [
                    12.908668518066406,
                    -658.3121948242188,
                    -460.28460693359375
                ],
                [
                    17.4234619140625,
                    -679.6661376953125,
                    -426.38531494140625
                ],
                [
                    416.9615478515625,
                    -540.3682861328125,
                    -417.2584228515625
                ],
                [
                    390.0074157714844,
                    -533.8933715820312,
                    -451.88934326171875
                ],
                [
                    362.1777648925781,
                    -523.3018798828125,
                    -483.4822998046875
                ]
            ],
            "landing_zones": [
                [
                    -675.0146484375,
                    -231.30029296875,
                    -446.687744140625
                ],
                [
                    -664.0250244140625,
                    -245.09033203125,
                    453.78741455078125
                ],
                [
                    227.15060424804688,
                    -664.64208984375,
                    436.07177734375
                ],
                [
                    223.89846801757812,
                    -641.0816650390625,
                    -469.7413635253906
                ]
            ]
        }
    ]
}